<?xml version="1.0"?>
<opencv_storage>
<cascade>
  <stageType>BOOST</stageType>
  <featureType>HAAR</featureType>
  <height>30</height>
  <width>24</width>
  <stageParams>
    <boostType>GAB</boostType>
    <minHitRate>9.9500000476837158e-01</minHitRate>
    <maxFalseAlarm>5.0000000000000000e-01</maxFalseAlarm>
    <weightTrimRate>9.4999998807907104e-01</weightTrimRate>
    <maxDepth>1</maxDepth>
    <maxWeakCount>100</maxWeakCount></stageParams>
  <featureParams>
    <maxCatCount>0</maxCatCount>
    <featSize>1</featSize>
    <mode>BASIC</mode></featureParams>
  <stageNum>16</stageNum>
  <stages>
    <!-- stage 0 -->
    <_>
      <maxWeakCount>6</maxWeakCount>
      <stageThreshold>-1.9335033893585205e+00</stageThreshold>
      <weakClassifiers>
        <_>
          <internalNodes>
            0 -1 81 -6.2038660049438477e-02</internalNodes>
          <leafValues>
            6.8965518474578857e-01 -8.6908358335494995e-01</leafValues></_>
        <_>
          <internalNodes>
            0 -1 61 1.5911959111690521e-02</internalNodes>
          <leafValues>
            -5.4896050691604614e-01 7.4067765474319458e-01</leafValues></_>
        <_>
          <internalNodes>
            0 -1 129 1.3082819990813732e-02</internalNodes>
          <leafValues>
            -3.4404242038726807e-01 6.6638386249542236e-01</leafValues></_>
        <_>
          <internalNodes>
            0 -1 11 -9.5456093549728394e-02</internalNodes>
          <leafValues>
            8.9361190795898438e-01 -3.5802388191223145e-01</leafValues></_>
        <_>
          <internalNodes>
            0 -1 152 -6.9918627850711346e-03</internalNodes>
          <leafValues>
            4.3670031428337097e-01 -5.9958660602569580e-01</leafValues></_>
        <_>
          <internalNodes>
            0 -1 35 2.1339675784111023e-01</internalNodes>
          <leafValues>
            -2.5009325146675110e-01 7.9584026336669922e-01</leafValues></_></weakClassifiers></_>
    <!-- stage 1 -->
    <_>
      <maxWeakCount>6</maxWeakCount>
      <stageThreshold>-1.2947373390197754e+00</stageThreshold>
      <weakClassifiers>
        <_>
          <internalNodes>
            0 -1 80 -4.7980554401874542e-02</internalNodes>
          <leafValues>
            4.7686117887496948e-01 -8.1250000000000000e-01</leafValues></_>
        <_>
          <internalNodes>
            0 -1 62 3.3041797578334808e-02</internalNodes>
          <leafValues>
            -5.0732165575027466e-01 7.6565724611282349e-01</leafValues></_>
        <_>
          <internalNodes>
            0 -1 128 5.2561690099537373e-03</internalNodes>
          <leafValues>
            -3.5544216632843018e-01 6.6923797130584717e-01</leafValues></_>
        <_>
          <internalNodes>
            0 -1 26 -1.9413262605667114e-01</internalNodes>
          <leafValues>
            8.6492729187011719e-01 -2.8441080451011658e-01</leafValues></_>
        <_>
          <internalNodes>
            0 -1 178 2.5135753676295280e-03</internalNodes>
          <leafValues>
            3.2291877269744873e-01 -8.5540211200714111e-01</leafValues></_>
        <_>
          <internalNodes>
            0 -1 182 -6.1015912797302008e-04</internalNodes>
          <leafValues>
            -8.1911325454711914e-01 3.4201848506927490e-01</leafValues></_></weakClassifiers></_>
    <!-- stage 2 -->
    <_>
      <maxWeakCount>7</maxWeakCount>
      <stageThreshold>-1.4110403060913086e+00</stageThreshold>
      <weakClassifiers>
        <_>
          <internalNodes>
            0 -1 79 5.9571161866188049e-02</internalNodes>
          <leafValues>
            -6.4129483699798584e-01 6.0509556531906128e-01</leafValues></_>
        <_>
          <internalNodes>
            0 -1 50 -1.2950590252876282e-01</internalNodes>
          <leafValues>
            8.7359100580215454e-01 -3.3212381601333618e-01</leafValues></_>
        <_>
          <internalNodes>
            0 -1 128 4.3774181976914406e-03</internalNodes>
          <leafValues>
            -4.0219968557357788e-01 6.5232610702514648e-01</leafValues></_>
        <_>
          <internalNodes>
            0 -1 163 2.9847150668501854e-02</internalNodes>
          <leafValues>
            -3.6832341551780701e-01 5.7990497350692749e-01</leafValues></_>
        <_>
          <internalNodes>
            0 -1 20 1.2540468014776707e-03</internalNodes>
          <leafValues>
            2.8999888896942139e-01 -7.1715348958969116e-01</leafValues></_>
        <_>
          <internalNodes>
            0 -1 19 6.1053322860971093e-04</internalNodes>
          <leafValues>
            3.1690287590026855e-01 -5.9186041355133057e-01</leafValues></_>
        <_>
          <internalNodes>
            0 -1 116 2.1501287817955017e-02</internalNodes>
          <leafValues>
            -2.7400031685829163e-01 7.0410156250000000e-01</leafValues></_></weakClassifiers></_>
    <!-- stage 3 -->
    <_>
      <maxWeakCount>9</maxWeakCount>
      <stageThreshold>-1.8982722759246826e+00</stageThreshold>
      <weakClassifiers>
        <_>
          <internalNodes>
            0 -1 7 -2.4305397644639015e-02</internalNodes>
          <leafValues>
            2.9516994953155518e-01 -7.8841871023178101e-01</leafValues></_>
        <_>
          <internalNodes>
            0 -1 159 2.3738663643598557e-02</internalNodes>
          <leafValues>
            -6.6577005386352539e-01 2.1814134716987610e-01</leafValues></_>
        <_>
          <internalNodes>
            0 -1 172 -1.7672905232757330e-03</internalNodes>
          <leafValues>
            -6.5696877241134644e-01 2.4864983558654785e-01</leafValues></_>
        <_>
          <internalNodes>
            0 -1 94 -2.2561874240636826e-02</internalNodes>
          <leafValues>
            7.1823447942733765e-01 -2.2014564275741577e-01</leafValues></_>
        <_>
          <internalNodes>
            0 -1 65 9.6370214596390724e-03</internalNodes>
          <leafValues>
            -3.6787140369415283e-01 5.8687192201614380e-01</leafValues></_>
        <_>
          <internalNodes>
            0 -1 23 -9.1027072630822659e-04</internalNodes>
          <leafValues>
            -8.9563387632369995e-01 2.1254879236221313e-01</leafValues></_>
        <_>
          <internalNodes>
            0 -1 180 1.6244364669546485e-03</internalNodes>
          <leafValues>
            1.4067466557025909e-01 -8.6239522695541382e-01</leafValues></_>
        <_>
          <internalNodes>
            0 -1 118 -3.9737422019243240e-02</internalNodes>
          <leafValues>
            6.6830360889434814e-01 -2.5238031148910522e-01</leafValues></_>
        <_>
          <internalNodes>
            0 -1 46 -1.3084119558334351e-01</internalNodes>
          <leafValues>
            7.3885256052017212e-01 -2.5468423962593079e-01</leafValues></_></weakClassifiers></_>
    <!-- stage 4 -->
    <_>
      <maxWeakCount>9</maxWeakCount>
      <stageThreshold>-1.6268672943115234e+00</stageThreshold>
      <weakClassifiers>
        <_>
          <internalNodes>
            0 -1 100 -2.3408073931932449e-02</internalNodes>
          <leafValues>
            4.7540983557701111e-01 -5.9722220897674561e-01</leafValues></_>
        <_>
          <internalNodes>
            0 -1 28 1.1284644901752472e-01</internalNodes>
          <leafValues>
            -3.3365941047668457e-01 7.4868404865264893e-01</leafValues></_>
        <_>
          <internalNodes>
            0 -1 91 -5.4144833236932755e-02</internalNodes>
          <leafValues>
            7.6538705825805664e-01 -2.6061895489692688e-01</leafValues></_>
        <_>
          <internalNodes>
            0 -1 96 1.3961891643702984e-02</internalNodes>
          <leafValues>
            -2.0313593745231628e-01 6.9623553752899170e-01</leafValues></_>
        <_>
          <internalNodes>
            0 -1 153 -2.1389475092291832e-02</internalNodes>
          <leafValues>
            3.2254564762115479e-01 -4.8652392625808716e-01</leafValues></_>
        <_>
          <internalNodes>
            0 -1 63 -4.2634725570678711e-02</internalNodes>
          <leafValues>
            -8.7360417842864990e-01 1.9176425039768219e-01</leafValues></_>
        <_>
          <internalNodes>
            0 -1 4 2.0848400890827179e-03</internalNodes>
          <leafValues>
            1.6495099663734436e-01 -9.0584439039230347e-01</leafValues></_>
        <_>
          <internalNodes>
            0 -1 177 -2.4030208587646484e-03</internalNodes>
          <leafValues>
            -7.9625159502029419e-01 1.3789211213588715e-01</leafValues></_>
        <_>
          <internalNodes>
            0 -1 115 -6.5807760693132877e-03</internalNodes>
          <leafValues>
            6.5508264303207397e-01 -2.4031423032283783e-01</leafValues></_></weakClassifiers></_>
    <!-- stage 5 -->
    <_>
      <maxWeakCount>9</maxWeakCount>
      <stageThreshold>-1.3025950193405151e+00</stageThreshold>
      <weakClassifiers>
        <_>
          <internalNodes>
            0 -1 162 -3.4768097102642059e-02</internalNodes>
          <leafValues>
            1.4968152344226837e-01 -7.6839566230773926e-01</leafValues></_>
        <_>
          <internalNodes>
            0 -1 84 -6.2907952815294266e-03</internalNodes>
          <leafValues>
            5.5308628082275391e-01 -4.0688344836235046e-01</leafValues></_>
        <_>
          <internalNodes>
            0 -1 141 -1.3016252778470516e-03</internalNodes>
          <leafValues>
            4.4150504469871521e-01 -3.5252958536148071e-01</leafValues></_>
        <_>
          <internalNodes>
            0 -1 49 -1.0639730095863342e-01</internalNodes>
          <leafValues>
            8.6598777770996094e-01 -1.6437554359436035e-01</leafValues></_>
        <_>
          <internalNodes>
            0 -1 37 2.8641644865274429e-02</internalNodes>
          <leafValues>
            -2.7560290694236755e-01 7.0371967554092407e-01</leafValues></_>
        <_>
          <internalNodes>
            0 -1 0 -1.8862814176827669e-03</internalNodes>
          <leafValues>
            -7.6124250888824463e-01 2.1794472634792328e-01</leafValues></_>
        <_>
          <internalNodes>
            0 -1 8 -1.4824090525507927e-02</internalNodes>
          <leafValues>
            3.2898762822151184e-01 -4.4208359718322754e-01</leafValues></_>
        <_>
          <internalNodes>
            0 -1 86 -2.3248351644724607e-03</internalNodes>
          <leafValues>
            7.7501535415649414e-01 -1.7968475818634033e-01</leafValues></_>
        <_>
          <internalNodes>
            0 -1 184 4.6619487693533301e-04</internalNodes>
          <leafValues>
            2.9794454574584961e-01 -5.4386901855468750e-01</leafValues></_></weakClassifiers></_>
    <!-- stage 6 -->
    <_>
      <maxWeakCount>13</maxWeakCount>
      <stageThreshold>-1.6831711530685425e+00</stageThreshold>
      <weakClassifiers>
        <_>
          <internalNodes>
            0 -1 160 4.5927368104457855e-02</internalNodes>
          <leafValues>
            -6.9939392805099487e-01 5.3797468543052673e-02</leafValues></_>
        <_>
          <internalNodes>
            0 -1 39 4.1132688522338867e-02</internalNodes>
          <leafValues>
            -3.3732667565345764e-01 4.5337930321693420e-01</leafValues></_>
        <_>
          <internalNodes>
            0 -1 36 4.9832828342914581e-02</internalNodes>
          <leafValues>
            -2.1553480625152588e-01 6.8797302246093750e-01</leafValues></_>
        <_>
          <internalNodes>
            0 -1 21 -4.0103483200073242e-01</internalNodes>
          <leafValues>
            8.3243447542190552e-01 -1.6271717846393585e-01</leafValues></_>
        <_>
          <internalNodes>
            0 -1 97 1.8091473728418350e-02</internalNodes>
          <leafValues>
            -2.0816126465797424e-01 6.2724637985229492e-01</leafValues></_>
        <_>
          <internalNodes>
            0 -1 131 -3.3063357695937157e-03</internalNodes>
          <leafValues>
            1.7030604183673859e-01 -8.1908863782882690e-01</leafValues></_>
        <_>
          <internalNodes>
            0 -1 183 -5.4385152179747820e-04</internalNodes>
          <leafValues>
            -5.4994028806686401e-01 2.4672526121139526e-01</leafValues></_>
        <_>
          <internalNodes>
            0 -1 171 -3.0544181354343891e-03</internalNodes>
          <leafValues>
            -6.1687111854553223e-01 1.7569805681705475e-01</leafValues></_>
        <_>
          <internalNodes>
            0 -1 107 2.2307397797703743e-02</internalNodes>
          <leafValues>
            -2.0398694276809692e-01 7.3482191562652588e-01</leafValues></_>
        <_>
          <internalNodes>
            0 -1 157 -2.1643284708261490e-03</internalNodes>
          <leafValues>
            8.4801280498504639e-01 -1.4052706956863403e-01</leafValues></_>
        <_>
          <internalNodes>
            0 -1 130 1.7835622653365135e-02</internalNodes>
          <leafValues>
            -1.3044574856758118e-01 6.6210967302322388e-01</leafValues></_>
        <_>
          <internalNodes>
            0 -1 108 6.2690503895282745e-02</internalNodes>
          <leafValues>
            -1.6056320071220398e-01 6.3735860586166382e-01</leafValues></_>
        <_>
          <internalNodes>
            0 -1 142 -2.5932760909199715e-03</internalNodes>
          <leafValues>
            5.5255579948425293e-01 -2.1572981774806976e-01</leafValues></_></weakClassifiers></_>
    <!-- stage 7 -->
    <_>
      <maxWeakCount>11</maxWeakCount>
      <stageThreshold>-1.4687820672988892e+00</stageThreshold>
      <weakClassifiers>
        <_>
          <internalNodes>
            0 -1 3 -4.2811170220375061e-02</internalNodes>
          <leafValues>
            -1.9178081303834915e-02 -7.2764784097671509e-01</leafValues></_>
        <_>
          <internalNodes>
            0 -1 138 -3.2719948794692755e-03</internalNodes>
          <leafValues>
            3.5435777902603149e-01 -4.1166764497756958e-01</leafValues></_>
        <_>
          <internalNodes>
            0 -1 76 -4.3963408097624779e-03</internalNodes>
          <leafValues>
            -8.0687147378921509e-01 1.4669878780841827e-01</leafValues></_>
        <_>
          <internalNodes>
            0 -1 132 2.3625014349818230e-02</internalNodes>
          <leafValues>
            -2.1943959593772888e-01 5.7479137182235718e-01</leafValues></_>
        <_>
          <internalNodes>
            0 -1 51 -6.4724117517471313e-02</internalNodes>
          <leafValues>
            5.0622832775115967e-01 -2.4616578221321106e-01</leafValues></_>
        <_>
          <internalNodes>
            0 -1 123 -8.9391600340604782e-04</internalNodes>
          <leafValues>
            -6.4519619941711426e-01 2.1744507551193237e-01</leafValues></_>
        <_>
          <internalNodes>
            0 -1 69 4.9950052052736282e-03</internalNodes>
          <leafValues>
            1.3424220681190491e-01 -8.0166184902191162e-01</leafValues></_>
        <_>
          <internalNodes>
            0 -1 74 -3.6629620008170605e-03</internalNodes>
          <leafValues>
            -7.8165090084075928e-01 1.3833187520503998e-01</leafValues></_>
        <_>
          <internalNodes>
            0 -1 173 2.0499175880104303e-03</internalNodes>
          <leafValues>
            1.1888450384140015e-01 -7.2282850742340088e-01</leafValues></_>
        <_>
          <internalNodes>
            0 -1 67 4.5066215097904205e-02</internalNodes>
          <leafValues>
            -2.1722020208835602e-01 5.1902133226394653e-01</leafValues></_>
        <_>
          <internalNodes>
            0 -1 48 -5.3957276046276093e-02</internalNodes>
          <leafValues>
            6.3346529006958008e-01 -2.4828614294528961e-01</leafValues></_></weakClassifiers></_>
    <!-- stage 8 -->
    <_>
      <maxWeakCount>13</maxWeakCount>
      <stageThreshold>-1.2689628601074219e+00</stageThreshold>
      <weakClassifiers>
        <_>
          <internalNodes>
            0 -1 110 1.2697241269052029e-02</internalNodes>
          <leafValues>
            -6.6090714931488037e-01 1.2994350492954254e-01</leafValues></_>
        <_>
          <internalNodes>
            0 -1 56 8.8590011000633240e-02</internalNodes>
          <leafValues>
            -3.6935898661613464e-01 3.7377816438674927e-01</leafValues></_>
        <_>
          <internalNodes>
            0 -1 55 -1.6383331269025803e-02</internalNodes>
          <leafValues>
            5.2321511507034302e-01 -2.4375699460506439e-01</leafValues></_>
        <_>
          <internalNodes>
            0 -1 168 1.7665248364210129e-02</internalNodes>
          <leafValues>
            -4.9689450860023499e-01 2.7778813242912292e-01</leafValues></_>
        <_>
          <internalNodes>
            0 -1 113 5.9709161520004272e-02</internalNodes>
          <leafValues>
            -1.6204383969306946e-01 7.4847054481506348e-01</leafValues></_>
        <_>
          <internalNodes>
            0 -1 22 -1.4745905064046383e-03</internalNodes>
          <leafValues>
            -8.6720269918441772e-01 1.4811019599437714e-01</leafValues></_>
        <_>
          <internalNodes>
            0 -1 34 5.9209234314039350e-04</internalNodes>
          <leafValues>
            1.5488837659358978e-01 -8.1711655855178833e-01</leafValues></_>
        <_>
          <internalNodes>
            0 -1 70 1.1753454804420471e-02</internalNodes>
          <leafValues>
            -2.8747689723968506e-01 3.9937120676040649e-01</leafValues></_>
        <_>
          <internalNodes>
            0 -1 135 9.2707818839699030e-04</internalNodes>
          <leafValues>
            1.2948316335678101e-01 -7.5234246253967285e-01</leafValues></_>
        <_>
          <internalNodes>
            0 -1 10 -3.4938203170895576e-03</internalNodes>
          <leafValues>
            2.1997559070587158e-01 -4.2670446634292603e-01</leafValues></_>
        <_>
          <internalNodes>
            0 -1 33 6.8721801042556763e-02</internalNodes>
          <leafValues>
            1.4252977073192596e-01 -6.7663073539733887e-01</leafValues></_>
        <_>
          <internalNodes>
            0 -1 68 -2.5454426649957895e-03</internalNodes>
          <leafValues>
            5.1612246036529541e-01 -2.0609366893768311e-01</leafValues></_>
        <_>
          <internalNodes>
            0 -1 72 5.7743308134377003e-03</internalNodes>
          <leafValues>
            -2.0941253006458282e-01 6.8254762887954712e-01</leafValues></_></weakClassifiers></_>
    <!-- stage 9 -->
    <_>
      <maxWeakCount>13</maxWeakCount>
      <stageThreshold>-1.2249143123626709e+00</stageThreshold>
      <weakClassifiers>
        <_>
          <internalNodes>
            0 -1 109 2.7731560170650482e-02</internalNodes>
          <leafValues>
            -5.3608244657516479e-01 2.7645051479339600e-01</leafValues></_>
        <_>
          <internalNodes>
            0 -1 58 -2.1860916167497635e-02</internalNodes>
          <leafValues>
            1.9411654770374298e-01 -5.5643618106842041e-01</leafValues></_>
        <_>
          <internalNodes>
            0 -1 93 -1.6691047698259354e-02</internalNodes>
          <leafValues>
            5.3793466091156006e-01 -2.3743720352649689e-01</leafValues></_>
        <_>
          <internalNodes>
            0 -1 78 7.3880925774574280e-03</internalNodes>
          <leafValues>
            -2.8129193186759949e-01 5.6366074085235596e-01</leafValues></_>
        <_>
          <internalNodes>
            0 -1 106 1.6328074038028717e-02</internalNodes>
          <leafValues>
            -1.5218500792980194e-01 6.2086766958236694e-01</leafValues></_>
        <_>
          <internalNodes>
            0 -1 24 3.7983327638357878e-04</internalNodes>
          <leafValues>
            2.4582915008068085e-01 -4.9978169798851013e-01</leafValues></_>
        <_>
          <internalNodes>
            0 -1 122 -2.7585966745391488e-04</internalNodes>
          <leafValues>
            -6.3955169916152954e-01 1.6435094177722931e-01</leafValues></_>
        <_>
          <internalNodes>
            0 -1 161 5.5534373968839645e-03</internalNodes>
          <leafValues>
            -6.9408571720123291e-01 1.1959297209978104e-01</leafValues></_>
        <_>
          <internalNodes>
            0 -1 175 -9.2732778284698725e-04</internalNodes>
          <leafValues>
            -7.8419536352157593e-01 1.0649009048938751e-01</leafValues></_>
        <_>
          <internalNodes>
            0 -1 174 3.6023096181452274e-03</internalNodes>
          <leafValues>
            9.9549449980258942e-02 -7.7122551202774048e-01</leafValues></_>
        <_>
          <internalNodes>
            0 -1 89 -2.4338308721780777e-03</internalNodes>
          <leafValues>
            2.6275515556335449e-01 -3.8484480977058411e-01</leafValues></_>
        <_>
          <internalNodes>
            0 -1 146 -1.5968814841471612e-04</internalNodes>
          <leafValues>
            4.3472203612327576e-01 -2.6613691449165344e-01</leafValues></_>
        <_>
          <internalNodes>
            0 -1 103 6.1210663989186287e-03</internalNodes>
          <leafValues>
            -2.0886449515819550e-01 5.4624801874160767e-01</leafValues></_></weakClassifiers></_>
    <!-- stage 10 -->
    <_>
      <maxWeakCount>15</maxWeakCount>
      <stageThreshold>-1.5965678691864014e+00</stageThreshold>
      <weakClassifiers>
        <_>
          <internalNodes>
            0 -1 6 -4.0540393441915512e-02</internalNodes>
          <leafValues>
            -5.2333805710077286e-02 -6.7466664314270020e-01</leafValues></_>
        <_>
          <internalNodes>
            0 -1 88 -1.2537989765405655e-02</internalNodes>
          <leafValues>
            4.4342371821403503e-01 -2.6729974150657654e-01</leafValues></_>
        <_>
          <internalNodes>
            0 -1 112 3.8367740809917450e-02</internalNodes>
          <leafValues>
            -3.1213191151618958e-01 3.9575788378715515e-01</leafValues></_>
        <_>
          <internalNodes>
            0 -1 31 -3.0110222287476063e-03</internalNodes>
          <leafValues>
            -7.7170127630233765e-01 1.4393608272075653e-01</leafValues></_>
        <_>
          <internalNodes>
            0 -1 42 7.7517721801996231e-03</internalNodes>
          <leafValues>
            -2.5803214311599731e-01 4.3697562813758850e-01</leafValues></_>
        <_>
          <internalNodes>
            0 -1 99 5.8422438800334930e-02</internalNodes>
          <leafValues>
            -2.7011492848396301e-01 4.0453264117240906e-01</leafValues></_>
        <_>
          <internalNodes>
            0 -1 12 -3.0688790604472160e-02</internalNodes>
          <leafValues>
            6.9194829463958740e-01 -1.3611057400703430e-01</leafValues></_>
        <_>
          <internalNodes>
            0 -1 119 -1.5222540241666138e-04</internalNodes>
          <leafValues>
            -5.4333120584487915e-01 2.2661486268043518e-01</leafValues></_>
        <_>
          <internalNodes>
            0 -1 92 2.6558585464954376e-02</internalNodes>
          <leafValues>
            -2.2848530113697052e-01 5.5000758171081543e-01</leafValues></_>
        <_>
          <internalNodes>
            0 -1 166 4.1953276377171278e-04</internalNodes>
          <leafValues>
            -3.6939790844917297e-01 2.8949815034866333e-01</leafValues></_>
        <_>
          <internalNodes>
            0 -1 47 -2.8870461508631706e-02</internalNodes>
          <leafValues>
            -6.9782233238220215e-01 1.4927040040493011e-01</leafValues></_>
        <_>
          <internalNodes>
            0 -1 71 1.9908072426915169e-03</internalNodes>
          <leafValues>
            -3.2999810576438904e-01 3.5101592540740967e-01</leafValues></_>
        <_>
          <internalNodes>
            0 -1 121 2.0104803843423724e-04</internalNodes>
          <leafValues>
            1.6132812201976776e-01 -6.1520999670028687e-01</leafValues></_>
        <_>
          <internalNodes>
            0 -1 52 2.0726066082715988e-02</internalNodes>
          <leafValues>
            -1.5104278922080994e-01 7.3893702030181885e-01</leafValues></_>
        <_>
          <internalNodes>
            0 -1 140 5.2928570657968521e-03</internalNodes>
          <leafValues>
            1.4598381519317627e-01 -7.7149641513824463e-01</leafValues></_></weakClassifiers></_>
    <!-- stage 11 -->
    <_>
      <maxWeakCount>15</maxWeakCount>
      <stageThreshold>-1.4004428386688232e+00</stageThreshold>
      <weakClassifiers>
        <_>
          <internalNodes>
            0 -1 101 3.9822861552238464e-02</internalNodes>
          <leafValues>
            -5.1137322187423706e-01 2.3703703284263611e-01</leafValues></_>
        <_>
          <internalNodes>
            0 -1 9 -9.0396637097001076e-04</internalNodes>
          <leafValues>
            1.4842027425765991e-01 -5.8820766210556030e-01</leafValues></_>
        <_>
          <internalNodes>
            0 -1 181 5.5982760386541486e-05</internalNodes>
          <leafValues>
            2.2088359296321869e-01 -4.2213428020477295e-01</leafValues></_>
        <_>
          <internalNodes>
            0 -1 43 3.0758981592953205e-03</internalNodes>
          <leafValues>
            1.4420829713344574e-01 -7.6542854309082031e-01</leafValues></_>
        <_>
          <internalNodes>
            0 -1 154 -8.9951064437627792e-03</internalNodes>
          <leafValues>
            4.1689178347587585e-01 -2.5393730401992798e-01</leafValues></_>
        <_>
          <internalNodes>
            0 -1 125 -1.5204687369987369e-03</internalNodes>
          <leafValues>
            5.3855490684509277e-01 -2.3577046394348145e-01</leafValues></_>
        <_>
          <internalNodes>
            0 -1 40 1.5106461942195892e-02</internalNodes>
          <leafValues>
            1.2046989053487778e-01 -9.4717019796371460e-01</leafValues></_>
        <_>
          <internalNodes>
            0 -1 105 9.8349377512931824e-02</internalNodes>
          <leafValues>
            -1.6331732273101807e-01 7.0171946287155151e-01</leafValues></_>
        <_>
          <internalNodes>
            0 -1 170 6.2097944319248199e-03</internalNodes>
          <leafValues>
            -4.0471035242080688e-01 2.5222027301788330e-01</leafValues></_>
        <_>
          <internalNodes>
            0 -1 77 2.4939794093370438e-02</internalNodes>
          <leafValues>
            -1.4684319496154785e-01 6.4611893892288208e-01</leafValues></_>
        <_>
          <internalNodes>
            0 -1 29 -9.0036622714251280e-04</internalNodes>
          <leafValues>
            -7.5483036041259766e-01 1.4522938430309296e-01</leafValues></_>
        <_>
          <internalNodes>
            0 -1 66 1.0116549208760262e-02</internalNodes>
          <leafValues>
            -2.6712590456008911e-01 3.4790644049644470e-01</leafValues></_>
        <_>
          <internalNodes>
            0 -1 73 -1.0295487008988857e-02</internalNodes>
          <leafValues>
            6.4506649971008301e-01 -1.4593441784381866e-01</leafValues></_>
        <_>
          <internalNodes>
            0 -1 82 3.6763558164238930e-03</internalNodes>
          <leafValues>
            -2.4629880487918854e-01 4.3172481656074524e-01</leafValues></_>
        <_>
          <internalNodes>
            0 -1 87 2.1429238840937614e-03</internalNodes>
          <leafValues>
            -2.1589562296867371e-01 4.1066539287567139e-01</leafValues></_></weakClassifiers></_>
    <!-- stage 12 -->
    <_>
      <maxWeakCount>14</maxWeakCount>
      <stageThreshold>-1.1527346372604370e+00</stageThreshold>
      <weakClassifiers>
        <_>
          <internalNodes>
            0 -1 124 -4.4209040701389313e-02</internalNodes>
          <leafValues>
            4.8936170339584351e-01 -4.6504560112953186e-01</leafValues></_>
        <_>
          <internalNodes>
            0 -1 144 8.5586532950401306e-03</internalNodes>
          <leafValues>
            -3.5938188433647156e-01 3.7301895022392273e-01</leafValues></_>
        <_>
          <internalNodes>
            0 -1 139 2.5839298032224178e-03</internalNodes>
          <leafValues>
            2.0880080759525299e-01 -6.8846237659454346e-01</leafValues></_>
        <_>
          <internalNodes>
            0 -1 128 2.8709103353321552e-03</internalNodes>
          <leafValues>
            -3.5973453521728516e-01 2.9414671659469604e-01</leafValues></_>
        <_>
          <internalNodes>
            0 -1 2 1.9147569546476007e-03</internalNodes>
          <leafValues>
            1.2710793316364288e-01 -7.4586588144302368e-01</leafValues></_>
        <_>
          <internalNodes>
            0 -1 27 -3.5142267588526011e-03</internalNodes>
          <leafValues>
            1.6243088245391846e-01 -4.9040222167968750e-01</leafValues></_>
        <_>
          <internalNodes>
            0 -1 98 1.0367867350578308e-01</internalNodes>
          <leafValues>
            -1.5393155813217163e-01 6.0469484329223633e-01</leafValues></_>
        <_>
          <internalNodes>
            0 -1 83 1.3935277238488197e-03</internalNodes>
          <leafValues>
            -3.2990142703056335e-01 3.1873106956481934e-01</leafValues></_>
        <_>
          <internalNodes>
            0 -1 1 -1.0293491650372744e-03</internalNodes>
          <leafValues>
            -5.4434394836425781e-01 1.7908398807048798e-01</leafValues></_>
        <_>
          <internalNodes>
            0 -1 155 -7.8200362622737885e-05</internalNodes>
          <leafValues>
            -3.6518099904060364e-01 2.2116282582283020e-01</leafValues></_>
        <_>
          <internalNodes>
            0 -1 117 2.4733901023864746e-02</internalNodes>
          <leafValues>
            -1.5092267096042633e-01 6.4509803056716919e-01</leafValues></_>
        <_>
          <internalNodes>
            0 -1 150 4.7217104583978653e-03</internalNodes>
          <leafValues>
            1.0596199333667755e-01 -8.6657130718231201e-01</leafValues></_>
        <_>
          <internalNodes>
            0 -1 137 1.0713080409914255e-03</internalNodes>
          <leafValues>
            9.8150618374347687e-02 -6.9361680746078491e-01</leafValues></_>
        <_>
          <internalNodes>
            0 -1 75 8.7978374212980270e-03</internalNodes>
          <leafValues>
            -2.1217472851276398e-01 4.1816347837448120e-01</leafValues></_></weakClassifiers></_>
    <!-- stage 13 -->
    <_>
      <maxWeakCount>15</maxWeakCount>
      <stageThreshold>-1.4967106580734253e+00</stageThreshold>
      <weakClassifiers>
        <_>
          <internalNodes>
            0 -1 151 -2.0337864756584167e-02</internalNodes>
          <leafValues>
            3.3333334326744080e-01 -4.9959513545036316e-01</leafValues></_>
        <_>
          <internalNodes>
            0 -1 90 5.1534157991409302e-01</internalNodes>
          <leafValues>
            -1.6366431117057800e-01 7.0694029331207275e-01</leafValues></_>
        <_>
          <internalNodes>
            0 -1 111 -3.5073766484856606e-03</internalNodes>
          <leafValues>
            5.1024287939071655e-01 -1.9032917916774750e-01</leafValues></_>
        <_>
          <internalNodes>
            0 -1 45 -1.9795948639512062e-02</internalNodes>
          <leafValues>
            6.4765119552612305e-01 -1.3871206343173981e-01</leafValues></_>
        <_>
          <internalNodes>
            0 -1 53 1.3944543898105621e-03</internalNodes>
          <leafValues>
            1.3267919421195984e-01 -8.0289059877395630e-01</leafValues></_>
        <_>
          <internalNodes>
            0 -1 30 -1.0882481001317501e-03</internalNodes>
          <leafValues>
            -3.6367869377136230e-01 3.0603283643722534e-01</leafValues></_>
        <_>
          <internalNodes>
            0 -1 32 -7.7414652332663536e-03</internalNodes>
          <leafValues>
            3.6156120896339417e-01 -2.7369272708892822e-01</leafValues></_>
        <_>
          <internalNodes>
            0 -1 38 1.1006863787770271e-02</internalNodes>
          <leafValues>
            -1.2200957536697388e-01 7.7729398012161255e-01</leafValues></_>
        <_>
          <internalNodes>
            0 -1 14 -1.3505082577466965e-02</internalNodes>
          <leafValues>
            2.5384855270385742e-01 -3.7135493755340576e-01</leafValues></_>
        <_>
          <internalNodes>
            0 -1 126 1.0992739349603653e-02</internalNodes>
          <leafValues>
            -2.0436206459999084e-01 4.3532571196556091e-01</leafValues></_>
        <_>
          <internalNodes>
            0 -1 25 1.1119197309017181e-01</internalNodes>
          <leafValues>
            -2.7513119578361511e-01 3.7274622917175293e-01</leafValues></_>
        <_>
          <internalNodes>
            0 -1 176 2.1132649853825569e-03</internalNodes>
          <leafValues>
            1.5443408489227295e-01 -6.7732483148574829e-01</leafValues></_>
        <_>
          <internalNodes>
            0 -1 104 -9.4757281243801117e-02</internalNodes>
          <leafValues>
            5.8942604064941406e-01 -2.0984975993633270e-01</leafValues></_>
        <_>
          <internalNodes>
            0 -1 114 3.7505820393562317e-02</internalNodes>
          <leafValues>
            -1.8804925680160522e-01 5.2088838815689087e-01</leafValues></_>
        <_>
          <internalNodes>
            0 -1 165 9.1488816542550921e-04</internalNodes>
          <leafValues>
            -2.0787435770034790e-01 4.8268574476242065e-01</leafValues></_></weakClassifiers></_>
    <!-- stage 14 -->
    <_>
      <maxWeakCount>15</maxWeakCount>
      <stageThreshold>-1.3570908308029175e+00</stageThreshold>
      <weakClassifiers>
        <_>
          <internalNodes>
            0 -1 179 -1.5574718418065459e-05</internalNodes>
          <leafValues>
            -7.2982454299926758e-01 -1.4317925274372101e-01</leafValues></_>
        <_>
          <internalNodes>
            0 -1 169 4.6727517619729042e-03</internalNodes>
          <leafValues>
            -4.5200255513191223e-01 1.6980248689651489e-01</leafValues></_>
        <_>
          <internalNodes>
            0 -1 120 -1.5486047777812928e-04</internalNodes>
          <leafValues>
            -4.8328897356987000e-01 1.8278445303440094e-01</leafValues></_>
        <_>
          <internalNodes>
            0 -1 148 1.4122594147920609e-03</internalNodes>
          <leafValues>
            -3.0286052823066711e-01 3.2797780632972717e-01</leafValues></_>
        <_>
          <internalNodes>
            0 -1 13 -1.4449032954871655e-02</internalNodes>
          <leafValues>
            2.3332224786281586e-01 -3.8672921061515808e-01</leafValues></_>
        <_>
          <internalNodes>
            0 -1 44 -2.3825583048164845e-03</internalNodes>
          <leafValues>
            -8.7397992610931396e-01 1.2483024597167969e-01</leafValues></_>
        <_>
          <internalNodes>
            0 -1 60 3.1406749039888382e-03</internalNodes>
          <leafValues>
            -1.9754135608673096e-01 4.4225466251373291e-01</leafValues></_>
        <_>
          <internalNodes>
            0 -1 145 8.3080250769853592e-03</internalNodes>
          <leafValues>
            -2.0142120122909546e-01 5.3388470411300659e-01</leafValues></_>
        <_>
          <internalNodes>
            0 -1 143 6.0480963438749313e-03</internalNodes>
          <leafValues>
            1.0949393361806870e-01 -8.5468161106109619e-01</leafValues></_>
        <_>
          <internalNodes>
            0 -1 57 1.7799340188503265e-02</internalNodes>
          <leafValues>
            -3.0442386865615845e-01 2.5299116969108582e-01</leafValues></_>
        <_>
          <internalNodes>
            0 -1 102 -4.0335534140467644e-03</internalNodes>
          <leafValues>
            4.3613827228546143e-01 -2.1547959744930267e-01</leafValues></_>
        <_>
          <internalNodes>
            0 -1 167 -1.3576302444562316e-03</internalNodes>
          <leafValues>
            -6.3905936479568481e-01 1.5713876485824585e-01</leafValues></_>
        <_>
          <internalNodes>
            0 -1 147 -2.2296751849353313e-03</internalNodes>
          <leafValues>
            4.4659864902496338e-01 -1.8391220271587372e-01</leafValues></_>
        <_>
          <internalNodes>
            0 -1 133 9.4884948339313269e-05</internalNodes>
          <leafValues>
            1.7447768151760101e-01 -5.0363367795944214e-01</leafValues></_>
        <_>
          <internalNodes>
            0 -1 85 5.3282221779227257e-03</internalNodes>
          <leafValues>
            9.5971420407295227e-02 -8.4863746166229248e-01</leafValues></_></weakClassifiers></_>
    <!-- stage 15 -->
    <_>
      <maxWeakCount>17</maxWeakCount>
      <stageThreshold>-1.4103209972381592e+00</stageThreshold>
      <weakClassifiers>
        <_>
          <internalNodes>
            0 -1 156 3.7622658419422805e-04</internalNodes>
          <leafValues>
            -6.8645358085632324e-01 -1.1500000208616257e-01</leafValues></_>
        <_>
          <internalNodes>
            0 -1 134 1.2146970257163048e-02</internalNodes>
          <leafValues>
            -2.4707938730716705e-01 4.1675445437431335e-01</leafValues></_>
        <_>
          <internalNodes>
            0 -1 95 1.5578944236040115e-02</internalNodes>
          <leafValues>
            -2.0280739665031433e-01 4.9377143383026123e-01</leafValues></_>
        <_>
          <internalNodes>
            0 -1 17 -1.9202522933483124e-02</internalNodes>
          <leafValues>
            -5.9530729055404663e-01 1.6248022019863129e-01</leafValues></_>
        <_>
          <internalNodes>
            0 -1 149 -2.5051787961274385e-03</internalNodes>
          <leafValues>
            3.1730973720550537e-01 -3.0751159787178040e-01</leafValues></_>
        <_>
          <internalNodes>
            0 -1 15 5.7016843929886818e-03</internalNodes>
          <leafValues>
            1.5965676307678223e-01 -5.0475597381591797e-01</leafValues></_>
        <_>
          <internalNodes>
            0 -1 136 1.8742443353403360e-04</internalNodes>
          <leafValues>
            1.2384234368801117e-01 -7.1581381559371948e-01</leafValues></_>
        <_>
          <internalNodes>
            0 -1 158 8.5940649732947350e-03</internalNodes>
          <leafValues>
            -1.5799126029014587e-01 6.0446840524673462e-01</leafValues></_>
        <_>
          <internalNodes>
            0 -1 41 -6.8980245850980282e-04</internalNodes>
          <leafValues>
            -4.3941122293472290e-01 1.9474698603153229e-01</leafValues></_>
        <_>
          <internalNodes>
            0 -1 164 -2.6679867878556252e-03</internalNodes>
          <leafValues>
            6.9491010904312134e-01 -1.2844941020011902e-01</leafValues></_>
        <_>
          <internalNodes>
            0 -1 64 -8.5061583667993546e-03</internalNodes>
          <leafValues>
            4.5191404223442078e-01 -1.7172193527221680e-01</leafValues></_>
        <_>
          <internalNodes>
            0 -1 54 -1.6984846442937851e-03</internalNodes>
          <leafValues>
            3.6075693368911743e-01 -2.4046523869037628e-01</leafValues></_>
        <_>
          <internalNodes>
            0 -1 59 -1.6535312170162797e-03</internalNodes>
          <leafValues>
            4.1512387990951538e-01 -1.8754859268665314e-01</leafValues></_>
        <_>
          <internalNodes>
            0 -1 18 -3.4288577735424042e-03</internalNodes>
          <leafValues>
            -5.6782805919647217e-01 1.5767624974250793e-01</leafValues></_>
        <_>
          <internalNodes>
            0 -1 127 1.2289034202694893e-02</internalNodes>
          <leafValues>
            -3.7663817405700684e-01 2.3278526961803436e-01</leafValues></_>
        <_>
          <internalNodes>
            0 -1 5 -1.0012947022914886e-01</internalNodes>
          <leafValues>
            6.2182641029357910e-01 -1.6621871292591095e-01</leafValues></_>
        <_>
          <internalNodes>
            0 -1 16 1.2396596139296889e-03</internalNodes>
          <leafValues>
            1.2564417719841003e-01 -7.2648787498474121e-01</leafValues></_></weakClassifiers></_></stages>
  <features>
    <_>
      <rects>
        <_>
          0 5 6 6 -1.</_>
        <_>
          2 5 2 6 3.</_></rects>
      <tilted>0</tilted></_>
    <_>
      <rects>
        <_>
          0 6 6 9 -1.</_>
        <_>
          2 6 2 9 3.</_></rects>
      <tilted>0</tilted></_>
    <_>
      <rects>
        <_>
          0 6 6 6 -1.</_>
        <_>
          0 6 3 3 2.</_>
        <_>
          3 9 3 3 2.</_></rects>
      <tilted>0</tilted></_>
    <_>
      <rects>
        <_>
          0 9 10 20 -1.</_>
        <_>
          0 9 5 10 2.</_>
        <_>
          5 19 5 10 2.</_></rects>
      <tilted>0</tilted></_>
    <_>
      <rects>
        <_>
          0 10 4 4 -1.</_>
        <_>
          2 10 2 4 2.</_></rects>
      <tilted>0</tilted></_>
    <_>
      <rects>
        <_>
          0 11 18 12 -1.</_>
        <_>
          6 11 6 12 3.</_></rects>
      <tilted>0</tilted></_>
    <_>
      <rects>
        <_>
          0 13 10 16 -1.</_>
        <_>
          0 13 5 8 2.</_>
        <_>
          5 21 5 8 2.</_></rects>
      <tilted>0</tilted></_>
    <_>
      <rects>
        <_>
          0 14 10 14 -1.</_>
        <_>
          0 14 5 7 2.</_>
        <_>
          5 21 5 7 2.</_></rects>
      <tilted>0</tilted></_>
    <_>
      <rects>
        <_>
          0 14 12 8 -1.</_>
        <_>
          0 14 6 4 2.</_>
        <_>
          6 18 6 4 2.</_></rects>
      <tilted>0</tilted></_>
    <_>
      <rects>
        <_>
          0 16 12 4 -1.</_>
        <_>
          0 16 6 2 2.</_>
        <_>
          6 18 6 2 2.</_></rects>
      <tilted>0</tilted></_>
    <_>
      <rects>
        <_>
          0 17 10 6 -1.</_>
        <_>
          0 17 5 3 2.</_>
        <_>
          5 20 5 3 2.</_></rects>
      <tilted>0</tilted></_>
    <_>
      <rects>
        <_>
          0 18 21 4 -1.</_>
        <_>
          7 18 7 4 3.</_></rects>
      <tilted>0</tilted></_>
    <_>
      <rects>
        <_>
          0 18 24 1 -1.</_>
        <_>
          8 18 8 1 3.</_></rects>
      <tilted>0</tilted></_>
    <_>
      <rects>
        <_>
          0 23 10 7 -1.</_>
        <_>
          5 23 5 7 2.</_></rects>
      <tilted>0</tilted></_>
    <_>
      <rects>
        <_>
          0 24 12 6 -1.</_>
        <_>
          6 24 6 6 2.</_></rects>
      <tilted>0</tilted></_>
    <_>
      <rects>
        <_>
          0 28 24 2 -1.</_>
        <_>
          12 28 12 2 2.</_></rects>
      <tilted>0</tilted></_>
    <_>
      <rects>
        <_>
          0 29 6 1 -1.</_>
        <_>
          2 29 2 1 3.</_></rects>
      <tilted>0</tilted></_>
    <_>
      <rects>
        <_>
          1 0 5 30 -1.</_>
        <_>
          1 10 5 10 3.</_></rects>
      <tilted>0</tilted></_>
    <_>
      <rects>
        <_>
          1 1 6 9 -1.</_>
        <_>
          1 4 6 3 3.</_></rects>
      <tilted>0</tilted></_>
    <_>
      <rects>
        <_>
          1 4 4 5 -1.</_>
        <_>
          3 4 2 5 2.</_></rects>
      <tilted>0</tilted></_>
    <_>
      <rects>
        <_>
          1 4 4 14 -1.</_>
        <_>
          1 4 2 7 2.</_>
        <_>
          3 11 2 7 2.</_></rects>
      <tilted>0</tilted></_>
    <_>
      <rects>
        <_>
          1 7 21 18 -1.</_>
        <_>
          8 7 7 18 3.</_></rects>
      <tilted>0</tilted></_>
    <_>
      <rects>
        <_>
          1 9 4 4 -1.</_>
        <_>
          3 9 2 4 2.</_></rects>
      <tilted>0</tilted></_>
    <_>
      <rects>
        <_>
          1 10 2 6 -1.</_>
        <_>
          2 10 1 6 2.</_></rects>
      <tilted>0</tilted></_>
    <_>
      <rects>
        <_>
          1 11 4 10 -1.</_>
        <_>
          3 11 2 10 2.</_></rects>
      <tilted>0</tilted></_>
    <_>
      <rects>
        <_>
          1 11 23 12 -1.</_>
        <_>
          1 15 23 4 3.</_></rects>
      <tilted>0</tilted></_>
    <_>
      <rects>
        <_>
          1 12 21 9 -1.</_>
        <_>
          8 12 7 9 3.</_></rects>
      <tilted>0</tilted></_>
    <_>
      <rects>
        <_>
          1 15 10 6 -1.</_>
        <_>
          1 15 5 3 2.</_>
        <_>
          6 18 5 3 2.</_></rects>
      <tilted>0</tilted></_>
    <_>
      <rects>
        <_>
          1 15 21 4 -1.</_>
        <_>
          8 15 7 4 3.</_></rects>
      <tilted>0</tilted></_>
    <_>
      <rects>
        <_>
          1 16 4 2 -1.</_>
        <_>
          3 16 2 2 2.</_></rects>
      <tilted>0</tilted></_>
    <_>
      <rects>
        <_>
          1 29 14 1 -1.</_>
        <_>
          8 29 7 1 2.</_></rects>
      <tilted>0</tilted></_>
    <_>
      <rects>
        <_>
          2 0 6 8 -1.</_>
        <_>
          4 0 2 8 3.</_></rects>
      <tilted>0</tilted></_>
    <_>
      <rects>
        <_>
          2 6 21 1 -1.</_>
        <_>
          9 6 7 1 3.</_></rects>
      <tilted>0</tilted></_>
    <_>
      <rects>
        <_>
          2 6 22 16 -1.</_>
        <_>
          2 6 11 8 2.</_>
        <_>
          13 14 11 8 2.</_></rects>
      <tilted>0</tilted></_>
    <_>
      <rects>
        <_>
          2 7 2 6 -1.</_>
        <_>
          3 7 1 6 2.</_></rects>
      <tilted>0</tilted></_>
    <_>
      <rects>
        <_>
          2 9 21 11 -1.</_>
        <_>
          9 9 7 11 3.</_></rects>
      <tilted>0</tilted></_>
    <_>
      <rects>
        <_>
          2 16 18 2 -1.</_>
        <_>
          8 16 6 2 3.</_></rects>
      <tilted>0</tilted></_>
    <_>
      <rects>
        <_>
          2 17 21 1 -1.</_>
        <_>
          9 17 7 1 3.</_></rects>
      <tilted>0</tilted></_>
    <_>
      <rects>
        <_>
          2 21 8 3 -1.</_>
        <_>
          6 21 4 3 2.</_></rects>
      <tilted>0</tilted></_>
    <_>
      <rects>
        <_>
          2 26 22 4 -1.</_>
        <_>
          2 28 22 2 2.</_></rects>
      <tilted>0</tilted></_>
    <_>
      <rects>
        <_>
          2 28 18 2 -1.</_>
        <_>
          8 28 6 2 3.</_></rects>
      <tilted>0</tilted></_>
    <_>
      <rects>
        <_>
          2 29 22 1 -1.</_>
        <_>
          13 29 11 1 2.</_></rects>
      <tilted>0</tilted></_>
    <_>
      <rects>
        <_>
          3 0 12 8 -1.</_>
        <_>
          7 0 4 8 3.</_></rects>
      <tilted>0</tilted></_>
    <_>
      <rects>
        <_>
          3 4 6 3 -1.</_>
        <_>
          6 4 3 3 2.</_></rects>
      <tilted>0</tilted></_>
    <_>
      <rects>
        <_>
          3 7 4 9 -1.</_>
        <_>
          5 7 2 9 2.</_></rects>
      <tilted>0</tilted></_>
    <_>
      <rects>
        <_>
          3 7 12 6 -1.</_>
        <_>
          3 7 6 3 2.</_>
        <_>
          9 10 6 3 2.</_></rects>
      <tilted>0</tilted></_>
    <_>
      <rects>
        <_>
          3 7 21 16 -1.</_>
        <_>
          10 7 7 16 3.</_></rects>
      <tilted>0</tilted></_>
    <_>
      <rects>
        <_>
          3 9 18 12 -1.</_>
        <_>
          3 9 9 6 2.</_>
        <_>
          12 15 9 6 2.</_></rects>
      <tilted>0</tilted></_>
    <_>
      <rects>
        <_>
          3 10 21 8 -1.</_>
        <_>
          10 10 7 8 3.</_></rects>
      <tilted>0</tilted></_>
    <_>
      <rects>
        <_>
          3 15 18 5 -1.</_>
        <_>
          9 15 6 5 3.</_></rects>
      <tilted>0</tilted></_>
    <_>
      <rects>
        <_>
          3 17 21 5 -1.</_>
        <_>
          10 17 7 5 3.</_></rects>
      <tilted>0</tilted></_>
    <_>
      <rects>
        <_>
          3 21 18 9 -1.</_>
        <_>
          3 24 18 3 3.</_></rects>
      <tilted>0</tilted></_>
    <_>
      <rects>
        <_>
          3 24 12 6 -1.</_>
        <_>
          3 26 12 2 3.</_></rects>
      <tilted>0</tilted></_>
    <_>
      <rects>
        <_>
          3 29 8 1 -1.</_>
        <_>
          7 29 4 1 2.</_></rects>
      <tilted>0</tilted></_>
    <_>
      <rects>
        <_>
          4 3 18 4 -1.</_>
        <_>
          4 5 18 2 2.</_></rects>
      <tilted>0</tilted></_>
    <_>
      <rects>
        <_>
          4 7 18 2 -1.</_>
        <_>
          10 7 6 2 3.</_></rects>
      <tilted>0</tilted></_>
    <_>
      <rects>
        <_>
          4 9 15 15 -1.</_>
        <_>
          9 9 5 15 3.</_></rects>
      <tilted>0</tilted></_>
    <_>
      <rects>
        <_>
          4 15 10 4 -1.</_>
        <_>
          9 15 5 4 2.</_></rects>
      <tilted>0</tilted></_>
    <_>
      <rects>
        <_>
          4 17 8 10 -1.</_>
        <_>
          4 22 8 5 2.</_></rects>
      <tilted>0</tilted></_>
    <_>
      <rects>
        <_>
          4 22 4 4 -1.</_>
        <_>
          4 22 2 2 2.</_>
        <_>
          6 24 2 2 2.</_></rects>
      <tilted>0</tilted></_>
    <_>
      <rects>
        <_>
          4 22 6 4 -1.</_>
        <_>
          7 22 3 4 2.</_></rects>
      <tilted>0</tilted></_>
    <_>
      <rects>
        <_>
          4 26 17 4 -1.</_>
        <_>
          4 28 17 2 2.</_></rects>
      <tilted>0</tilted></_>
    <_>
      <rects>
        <_>
          4 26 20 4 -1.</_>
        <_>
          4 28 20 2 2.</_></rects>
      <tilted>0</tilted></_>
    <_>
      <rects>
        <_>
          5 6 18 24 -1.</_>
        <_>
          5 6 9 12 2.</_>
        <_>
          14 18 9 12 2.</_></rects>
      <tilted>0</tilted></_>
    <_>
      <rects>
        <_>
          5 8 11 6 -1.</_>
        <_>
          5 10 11 2 3.</_></rects>
      <tilted>0</tilted></_>
    <_>
      <rects>
        <_>
          5 9 15 1 -1.</_>
        <_>
          10 9 5 1 3.</_></rects>
      <tilted>0</tilted></_>
    <_>
      <rects>
        <_>
          5 13 6 8 -1.</_>
        <_>
          7 13 2 8 3.</_></rects>
      <tilted>0</tilted></_>
    <_>
      <rects>
        <_>
          5 17 15 4 -1.</_>
        <_>
          10 17 5 4 3.</_></rects>
      <tilted>0</tilted></_>
    <_>
      <rects>
        <_>
          5 27 7 3 -1.</_>
        <_>
          5 28 7 1 3.</_></rects>
      <tilted>0</tilted></_>
    <_>
      <rects>
        <_>
          5 29 14 1 -1.</_>
        <_>
          12 29 7 1 2.</_></rects>
      <tilted>0</tilted></_>
    <_>
      <rects>
        <_>
          6 8 6 8 -1.</_>
        <_>
          8 8 2 8 3.</_></rects>
      <tilted>0</tilted></_>
    <_>
      <rects>
        <_>
          6 17 6 3 -1.</_>
        <_>
          8 17 2 3 3.</_></rects>
      <tilted>0</tilted></_>
    <_>
      <rects>
        <_>
          6 27 7 3 -1.</_>
        <_>
          6 28 7 1 3.</_></rects>
      <tilted>0</tilted></_>
    <_>
      <rects>
        <_>
          6 27 12 3 -1.</_>
        <_>
          6 28 12 1 3.</_></rects>
      <tilted>0</tilted></_>
    <_>
      <rects>
        <_>
          6 29 18 1 -1.</_>
        <_>
          15 29 9 1 2.</_></rects>
      <tilted>0</tilted></_>
    <_>
      <rects>
        <_>
          7 0 6 9 -1.</_>
        <_>
          9 0 2 9 3.</_></rects>
      <tilted>0</tilted></_>
    <_>
      <rects>
        <_>
          7 0 14 1 -1.</_>
        <_>
          14 0 7 1 2.</_></rects>
      <tilted>0</tilted></_>
    <_>
      <rects>
        <_>
          7 7 16 6 -1.</_>
        <_>
          7 7 8 3 2.</_>
        <_>
          15 10 8 3 2.</_></rects>
      <tilted>0</tilted></_>
    <_>
      <rects>
        <_>
          7 9 12 1 -1.</_>
        <_>
          11 9 4 1 3.</_></rects>
      <tilted>0</tilted></_>
    <_>
      <rects>
        <_>
          7 12 12 9 -1.</_>
        <_>
          7 15 12 3 3.</_></rects>
      <tilted>0</tilted></_>
    <_>
      <rects>
        <_>
          7 14 8 10 -1.</_>
        <_>
          7 19 8 5 2.</_></rects>
      <tilted>0</tilted></_>
    <_>
      <rects>
        <_>
          7 14 10 12 -1.</_>
        <_>
          7 20 10 6 2.</_></rects>
      <tilted>0</tilted></_>
    <_>
      <rects>
        <_>
          7 18 4 8 -1.</_>
        <_>
          9 18 2 8 2.</_></rects>
      <tilted>0</tilted></_>
    <_>
      <rects>
        <_>
          7 18 9 3 -1.</_>
        <_>
          10 18 3 3 3.</_></rects>
      <tilted>0</tilted></_>
    <_>
      <rects>
        <_>
          7 24 3 6 -1.</_>
        <_>
          7 26 3 2 3.</_></rects>
      <tilted>0</tilted></_>
    <_>
      <rects>
        <_>
          7 26 6 4 -1.</_>
        <_>
          9 26 2 4 3.</_></rects>
      <tilted>0</tilted></_>
    <_>
      <rects>
        <_>
          7 27 2 3 -1.</_>
        <_>
          7 28 2 1 3.</_></rects>
      <tilted>0</tilted></_>
    <_>
      <rects>
        <_>
          7 27 8 3 -1.</_>
        <_>
          7 28 8 1 3.</_></rects>
      <tilted>0</tilted></_>
    <_>
      <rects>
        <_>
          8 0 6 12 -1.</_>
        <_>
          10 0 2 12 3.</_></rects>
      <tilted>0</tilted></_>
    <_>
      <rects>
        <_>
          8 0 7 9 -1.</_>
        <_>
          8 3 7 3 3.</_></rects>
      <tilted>0</tilted></_>
    <_>
      <rects>
        <_>
          8 0 9 30 -1.</_>
        <_>
          8 10 9 10 3.</_></rects>
      <tilted>0</tilted></_>
    <_>
      <rects>
        <_>
          8 2 9 11 -1.</_>
        <_>
          11 2 3 11 3.</_></rects>
      <tilted>0</tilted></_>
    <_>
      <rects>
        <_>
          8 3 9 7 -1.</_>
        <_>
          11 3 3 7 3.</_></rects>
      <tilted>0</tilted></_>
    <_>
      <rects>
        <_>
          8 4 6 7 -1.</_>
        <_>
          11 4 3 7 2.</_></rects>
      <tilted>0</tilted></_>
    <_>
      <rects>
        <_>
          8 5 9 5 -1.</_>
        <_>
          11 5 3 5 3.</_></rects>
      <tilted>0</tilted></_>
    <_>
      <rects>
        <_>
          8 7 6 6 -1.</_>
        <_>
          8 9 6 2 3.</_></rects>
      <tilted>0</tilted></_>
    <_>
      <rects>
        <_>
          8 7 7 6 -1.</_>
        <_>
          8 9 7 2 3.</_></rects>
      <tilted>0</tilted></_>
    <_>
      <rects>
        <_>
          8 7 8 6 -1.</_>
        <_>
          8 9 8 2 3.</_></rects>
      <tilted>0</tilted></_>
    <_>
      <rects>
        <_>
          8 8 12 13 -1.</_>
        <_>
          14 8 6 13 2.</_></rects>
      <tilted>0</tilted></_>
    <_>
      <rects>
        <_>
          8 12 9 9 -1.</_>
        <_>
          8 15 9 3 3.</_></rects>
      <tilted>0</tilted></_>
    <_>
      <rects>
        <_>
          8 24 8 6 -1.</_>
        <_>
          8 26 8 2 3.</_></rects>
      <tilted>0</tilted></_>
    <_>
      <rects>
        <_>
          8 26 9 4 -1.</_>
        <_>
          8 28 9 2 2.</_></rects>
      <tilted>0</tilted></_>
    <_>
      <rects>
        <_>
          9 0 7 4 -1.</_>
        <_>
          9 2 7 2 2.</_></rects>
      <tilted>0</tilted></_>
    <_>
      <rects>
        <_>
          9 2 6 5 -1.</_>
        <_>
          11 2 2 5 3.</_></rects>
      <tilted>0</tilted></_>
    <_>
      <rects>
        <_>
          9 2 8 25 -1.</_>
        <_>
          13 2 4 25 2.</_></rects>
      <tilted>0</tilted></_>
    <_>
      <rects>
        <_>
          9 5 7 10 -1.</_>
        <_>
          9 10 7 5 2.</_></rects>
      <tilted>0</tilted></_>
    <_>
      <rects>
        <_>
          9 8 4 9 -1.</_>
        <_>
          9 11 4 3 3.</_></rects>
      <tilted>0</tilted></_>
    <_>
      <rects>
        <_>
          9 8 5 6 -1.</_>
        <_>
          9 11 5 3 2.</_></rects>
      <tilted>0</tilted></_>
    <_>
      <rects>
        <_>
          9 13 7 9 -1.</_>
        <_>
          9 16 7 3 3.</_></rects>
      <tilted>0</tilted></_>
    <_>
      <rects>
        <_>
          9 14 6 6 -1.</_>
        <_>
          9 16 6 2 3.</_></rects>
      <tilted>0</tilted></_>
    <_>
      <rects>
        <_>
          9 26 10 4 -1.</_>
        <_>
          9 28 10 2 2.</_></rects>
      <tilted>0</tilted></_>
    <_>
      <rects>
        <_>
          9 27 6 3 -1.</_>
        <_>
          9 28 6 1 3.</_></rects>
      <tilted>0</tilted></_>
    <_>
      <rects>
        <_>
          10 0 8 12 -1.</_>
        <_>
          10 6 8 6 2.</_></rects>
      <tilted>0</tilted></_>
    <_>
      <rects>
        <_>
          10 2 6 12 -1.</_>
        <_>
          10 6 6 4 3.</_></rects>
      <tilted>0</tilted></_>
    <_>
      <rects>
        <_>
          10 7 6 12 -1.</_>
        <_>
          10 11 6 4 3.</_></rects>
      <tilted>0</tilted></_>
    <_>
      <rects>
        <_>
          10 8 3 6 -1.</_>
        <_>
          10 10 3 2 3.</_></rects>
      <tilted>0</tilted></_>
    <_>
      <rects>
        <_>
          10 8 6 9 -1.</_>
        <_>
          10 11 6 3 3.</_></rects>
      <tilted>0</tilted></_>
    <_>
      <rects>
        <_>
          10 16 6 6 -1.</_>
        <_>
          10 18 6 2 3.</_></rects>
      <tilted>0</tilted></_>
    <_>
      <rects>
        <_>
          10 16 6 6 -1.</_>
        <_>
          10 19 6 3 2.</_></rects>
      <tilted>0</tilted></_>
    <_>
      <rects>
        <_>
          10 19 3 1 -1.</_>
        <_>
          11 19 1 1 3.</_></rects>
      <tilted>0</tilted></_>
    <_>
      <rects>
        <_>
          10 20 1 2 -1.</_>
        <_>
          10 21 1 1 2.</_></rects>
      <tilted>0</tilted></_>
    <_>
      <rects>
        <_>
          10 20 1 3 -1.</_>
        <_>
          10 21 1 1 3.</_></rects>
      <tilted>0</tilted></_>
    <_>
      <rects>
        <_>
          10 21 4 2 -1.</_>
        <_>
          10 21 2 1 2.</_>
        <_>
          12 22 2 1 2.</_></rects>
      <tilted>0</tilted></_>
    <_>
      <rects>
        <_>
          10 21 5 2 -1.</_>
        <_>
          10 22 5 1 2.</_></rects>
      <tilted>0</tilted></_>
    <_>
      <rects>
        <_>
          10 24 5 6 -1.</_>
        <_>
          10 26 5 2 3.</_></rects>
      <tilted>0</tilted></_>
    <_>
      <rects>
        <_>
          11 1 3 6 -1.</_>
        <_>
          12 1 1 6 3.</_></rects>
      <tilted>0</tilted></_>
    <_>
      <rects>
        <_>
          11 1 6 10 -1.</_>
        <_>
          13 1 2 10 3.</_></rects>
      <tilted>0</tilted></_>
    <_>
      <rects>
        <_>
          11 1 9 12 -1.</_>
        <_>
          11 7 9 6 2.</_></rects>
      <tilted>0</tilted></_>
    <_>
      <rects>
        <_>
          11 2 1 10 -1.</_>
        <_>
          11 7 1 5 2.</_></rects>
      <tilted>0</tilted></_>
    <_>
      <rects>
        <_>
          11 2 3 10 -1.</_>
        <_>
          11 7 3 5 2.</_></rects>
      <tilted>0</tilted></_>
    <_>
      <rects>
        <_>
          11 3 6 7 -1.</_>
        <_>
          13 3 2 7 3.</_></rects>
      <tilted>0</tilted></_>
    <_>
      <rects>
        <_>
          11 4 5 26 -1.</_>
        <_>
          11 17 5 13 2.</_></rects>
      <tilted>0</tilted></_>
    <_>
      <rects>
        <_>
          11 14 9 5 -1.</_>
        <_>
          14 14 3 5 3.</_></rects>
      <tilted>0</tilted></_>
    <_>
      <rects>
        <_>
          11 15 1 2 -1.</_>
        <_>
          11 16 1 1 2.</_></rects>
      <tilted>0</tilted></_>
    <_>
      <rects>
        <_>
          11 16 9 2 -1.</_>
        <_>
          14 16 3 2 3.</_></rects>
      <tilted>0</tilted></_>
    <_>
      <rects>
        <_>
          11 18 2 6 -1.</_>
        <_>
          11 18 1 3 2.</_>
        <_>
          12 21 1 3 2.</_></rects>
      <tilted>0</tilted></_>
    <_>
      <rects>
        <_>
          11 20 1 2 -1.</_>
        <_>
          11 21 1 1 2.</_></rects>
      <tilted>0</tilted></_>
    <_>
      <rects>
        <_>
          11 23 3 7 -1.</_>
        <_>
          12 23 1 7 3.</_></rects>
      <tilted>0</tilted></_>
    <_>
      <rects>
        <_>
          12 0 2 9 -1.</_>
        <_>
          12 3 2 3 3.</_></rects>
      <tilted>0</tilted></_>
    <_>
      <rects>
        <_>
          12 0 12 1 -1.</_>
        <_>
          16 0 4 1 3.</_></rects>
      <tilted>0</tilted></_>
    <_>
      <rects>
        <_>
          12 0 10 1 -1.</_>
        <_>
          17 0 5 1 2.</_></rects>
      <tilted>0</tilted></_>
    <_>
      <rects>
        <_>
          12 1 1 9 -1.</_>
        <_>
          12 4 1 3 3.</_></rects>
      <tilted>0</tilted></_>
    <_>
      <rects>
        <_>
          12 1 2 9 -1.</_>
        <_>
          13 1 1 9 2.</_></rects>
      <tilted>0</tilted></_>
    <_>
      <rects>
        <_>
          12 4 1 24 -1.</_>
        <_>
          12 16 1 12 2.</_></rects>
      <tilted>0</tilted></_>
    <_>
      <rects>
        <_>
          12 4 8 4 -1.</_>
        <_>
          16 4 4 4 2.</_></rects>
      <tilted>0</tilted></_>
    <_>
      <rects>
        <_>
          12 5 4 5 -1.</_>
        <_>
          14 5 2 5 2.</_></rects>
      <tilted>0</tilted></_>
    <_>
      <rects>
        <_>
          12 6 4 2 -1.</_>
        <_>
          12 7 4 1 2.</_></rects>
      <tilted>0</tilted></_>
    <_>
      <rects>
        <_>
          12 8 1 6 -1.</_>
        <_>
          12 11 1 3 2.</_></rects>
      <tilted>0</tilted></_>
    <_>
      <rects>
        <_>
          12 17 6 6 -1.</_>
        <_>
          12 17 3 3 2.</_>
        <_>
          15 20 3 3 2.</_></rects>
      <tilted>0</tilted></_>
    <_>
      <rects>
        <_>
          12 23 9 3 -1.</_>
        <_>
          15 23 3 3 3.</_></rects>
      <tilted>0</tilted></_>
    <_>
      <rects>
        <_>
          12 26 6 4 -1.</_>
        <_>
          14 26 2 4 3.</_></rects>
      <tilted>0</tilted></_>
    <_>
      <rects>
        <_>
          12 26 12 4 -1.</_>
        <_>
          12 26 6 2 2.</_>
        <_>
          18 28 6 2 2.</_></rects>
      <tilted>0</tilted></_>
    <_>
      <rects>
        <_>
          13 8 2 22 -1.</_>
        <_>
          13 19 2 11 2.</_></rects>
      <tilted>0</tilted></_>
    <_>
      <rects>
        <_>
          13 15 11 10 -1.</_>
        <_>
          13 20 11 5 2.</_></rects>
      <tilted>0</tilted></_>
    <_>
      <rects>
        <_>
          13 18 6 8 -1.</_>
        <_>
          16 18 3 8 2.</_></rects>
      <tilted>0</tilted></_>
    <_>
      <rects>
        <_>
          13 20 1 2 -1.</_>
        <_>
          13 21 1 1 2.</_></rects>
      <tilted>0</tilted></_>
    <_>
      <rects>
        <_>
          13 26 1 4 -1.</_>
        <_>
          13 28 1 2 2.</_></rects>
      <tilted>0</tilted></_>
    <_>
      <rects>
        <_>
          13 27 1 3 -1.</_>
        <_>
          13 28 1 1 3.</_></rects>
      <tilted>0</tilted></_>
    <_>
      <rects>
        <_>
          13 28 6 2 -1.</_>
        <_>
          13 29 6 1 2.</_></rects>
      <tilted>0</tilted></_>
    <_>
      <rects>
        <_>
          14 9 10 20 -1.</_>
        <_>
          14 9 5 10 2.</_>
        <_>
          19 19 5 10 2.</_></rects>
      <tilted>0</tilted></_>
    <_>
      <rects>
        <_>
          14 10 10 18 -1.</_>
        <_>
          14 10 5 9 2.</_>
        <_>
          19 19 5 9 2.</_></rects>
      <tilted>0</tilted></_>
    <_>
      <rects>
        <_>
          14 10 10 20 -1.</_>
        <_>
          14 10 5 10 2.</_>
        <_>
          19 20 5 10 2.</_></rects>
      <tilted>0</tilted></_>
    <_>
      <rects>
        <_>
          14 13 4 14 -1.</_>
        <_>
          14 20 4 7 2.</_></rects>
      <tilted>0</tilted></_>
    <_>
      <rects>
        <_>
          14 16 10 12 -1.</_>
        <_>
          14 16 5 6 2.</_>
        <_>
          19 22 5 6 2.</_></rects>
      <tilted>0</tilted></_>
    <_>
      <rects>
        <_>
          14 24 6 1 -1.</_>
        <_>
          17 24 3 1 2.</_></rects>
      <tilted>0</tilted></_>
    <_>
      <rects>
        <_>
          14 25 6 2 -1.</_>
        <_>
          14 26 6 1 2.</_></rects>
      <tilted>0</tilted></_>
    <_>
      <rects>
        <_>
          14 26 1 4 -1.</_>
        <_>
          14 28 1 2 2.</_></rects>
      <tilted>0</tilted></_>
    <_>
      <rects>
        <_>
          15 0 9 3 -1.</_>
        <_>
          18 0 3 3 3.</_></rects>
      <tilted>0</tilted></_>
    <_>
      <rects>
        <_>
          15 5 5 24 -1.</_>
        <_>
          15 13 5 8 3.</_></rects>
      <tilted>0</tilted></_>
    <_>
      <rects>
        <_>
          15 12 7 12 -1.</_>
        <_>
          15 16 7 4 3.</_></rects>
      <tilted>0</tilted></_>
    <_>
      <rects>
        <_>
          16 22 8 8 -1.</_>
        <_>
          20 22 4 8 2.</_></rects>
      <tilted>0</tilted></_>
    <_>
      <rects>
        <_>
          18 5 6 12 -1.</_>
        <_>
          20 5 2 12 3.</_></rects>
      <tilted>0</tilted></_>
    <_>
      <rects>
        <_>
          18 5 6 9 -1.</_>
        <_>
          21 5 3 9 2.</_></rects>
      <tilted>0</tilted></_>
    <_>
      <rects>
        <_>
          19 2 3 18 -1.</_>
        <_>
          20 2 1 18 3.</_></rects>
      <tilted>0</tilted></_>
    <_>
      <rects>
        <_>
          19 7 4 12 -1.</_>
        <_>
          21 7 2 12 2.</_></rects>
      <tilted>0</tilted></_>
    <_>
      <rects>
        <_>
          19 9 2 7 -1.</_>
        <_>
          20 9 1 7 2.</_></rects>
      <tilted>0</tilted></_>
    <_>
      <rects>
        <_>
          20 0 4 14 -1.</_>
        <_>
          22 0 2 14 2.</_></rects>
      <tilted>0</tilted></_>
    <_>
      <rects>
        <_>
          20 3 4 16 -1.</_>
        <_>
          20 3 2 8 2.</_>
        <_>
          22 11 2 8 2.</_></rects>
      <tilted>0</tilted></_>
    <_>
      <rects>
        <_>
          20 3 4 9 -1.</_>
        <_>
          22 3 2 9 2.</_></rects>
      <tilted>0</tilted></_>
    <_>
      <rects>
        <_>
          20 3 4 27 -1.</_>
        <_>
          22 3 2 27 2.</_></rects>
      <tilted>0</tilted></_>
    <_>
      <rects>
        <_>
          20 8 4 5 -1.</_>
        <_>
          22 8 2 5 2.</_></rects>
      <tilted>0</tilted></_>
    <_>
      <rects>
        <_>
          20 11 4 6 -1.</_>
        <_>
          20 14 4 3 2.</_></rects>
      <tilted>0</tilted></_>
    <_>
      <rects>
        <_>
          21 5 2 7 -1.</_>
        <_>
          22 5 1 7 2.</_></rects>
      <tilted>0</tilted></_>
    <_>
      <rects>
        <_>
          22 0 2 25 -1.</_>
        <_>
          23 0 1 25 2.</_></rects>
      <tilted>0</tilted></_>
    <_>
      <rects>
        <_>
          22 7 2 14 -1.</_>
        <_>
          22 7 1 7 2.</_>
        <_>
          23 14 1 7 2.</_></rects>
      <tilted>0</tilted></_></features></cascade>
</opencv_storage>
