<?xml version="1.0"?>
<opencv_storage>
<myhaar type_id="opencv-haar-classifier">
  <size>
    24 24</size>
  <stages>
    <_>
      <trees>
        <_>
          <_>
            <feature>
              <rects>
                <_>
                  0 0 21 21 -1.</_>
                <_>
                  7 7 7 7 9.</_></rects>
              <tilted>0</tilted></feature>
            <threshold>1.0276670455932617</threshold>
            <left_val>-1.</left_val>
            <right_val>1.0000009536743164</right_val></_></_></trees>
      <stage_threshold>1.0000009536743164</stage_threshold>
      <parent>-1</parent>
      <next>-1</next></_>
    <_>
      <trees>
        <_>
          <_>
            <feature>
              <rects>
                <_>
                  0 0 24 24 -1.</_>
                <_>
                  8 8 8 8 9.</_></rects>
              <tilted>0</tilted></feature>
            <threshold>1.7389359474182129</threshold>
            <left_val>-1.</left_val>
            <right_val>1.</right_val></_></_>
        <_>
          <_>
            <feature>
              <rects>
                <_>
                  16 0 8 13 -1.</_>
                <_>
                  16 0 4 13 2.</_></rects>
              <tilted>0</tilted></feature>
            <threshold>2.7658629696816206e-003</threshold>
            <left_val>-1.</left_val>
            <right_val>1.</right_val></_></_>
        <_>
          <_>
            <feature>
              <rects>
                <_>
                  0 0 2 1 -1.</_>
                <_>
                  1 0 1 1 2.</_></rects>
              <tilted>0</tilted></feature>
            <threshold>0.</threshold>
            <left_val>0.</left_val>
            <right_val>-1.</right_val></_></_>
        <_>
          <_>
            <feature>
              <rects>
                <_>
                  4 0 20 10 -1.</_>
                <_>
                  14 0 10 5 2.</_>
                <_>
                  4 5 10 5 2.</_></rects>
              <tilted>0</tilted></feature>
            <threshold>6.0340538620948792e-003</threshold>
            <left_val>-0.9970461726188660</left_val>
            <right_val>0.8631238937377930</right_val></_></_>
        <_>
          <_>
            <feature>
              <rects>
                <_>
                  0 0 2 1 -1.</_>
                <_>
                  1 0 1 1 2.</_></rects>
              <tilted>0</tilted></feature>
            <threshold>0.</threshold>
            <left_val>0.</left_val>
            <right_val>-1.</right_val></_></_>
        <_>
          <_>
            <feature>
              <rects>
                <_>
                  8 10 16 8 -1.</_>
                <_>
                  16 10 8 4 2.</_>
                <_>
                  8 14 8 4 2.</_></rects>
              <tilted>0</tilted></feature>
            <threshold>-3.5179150290787220e-003</threshold>
            <left_val>0.8081073760986328</left_val>
            <right_val>-0.9961401224136353</right_val></_></_>
        <_>
          <_>
            <feature>
              <rects>
                <_>
                  6 0 9 6 -1.</_>
                <_>
                  9 3 3 6 3.</_></rects>
              <tilted>1</tilted></feature>
            <threshold>-0.0778745114803314</threshold>
            <left_val>1.</left_val>
            <right_val>-1.0000009536743164</right_val></_></_></trees>
      <stage_threshold>0.8110616803169251</stage_threshold>
      <parent>0</parent>
      <next>-1</next></_>
    <_>
      <trees>
        <_>
          <_>
            <feature>
              <rects>
                <_>
                  1 1 21 21 -1.</_>
                <_>
                  8 8 7 7 9.</_></rects>
              <tilted>0</tilted></feature>
            <threshold>1.6453200578689575</threshold>
            <left_val>-0.9368420839309692</left_val>
            <right_val>0.8476194143295288</right_val></_></_>
        <_>
          <_>
            <feature>
              <rects>
                <_>
                  12 8 1 9 -1.</_>
                <_>
                  9 11 1 3 3.</_></rects>
              <tilted>1</tilted></feature>
            <threshold>2.9711159877479076e-003</threshold>
            <left_val>-0.8690199255943298</left_val>
            <right_val>0.3229745030403137</right_val></_></_>
        <_>
          <_>
            <feature>
              <rects>
                <_>
                  12 8 9 1 -1.</_>
                <_>
                  15 11 3 1 3.</_></rects>
              <tilted>1</tilted></feature>
            <threshold>0.0236908793449402</threshold>
            <left_val>-0.9747633934020996</left_val>
            <right_val>0.7143815755844116</right_val></_></_></trees>
      <stage_threshold>0.1005140021443367</stage_threshold>
      <parent>1</parent>
      <next>-1</next></_></stages></myhaar>
</opencv_storage>
